digraph Tree {
node [shape=box, style="filled", color="black"] ;
0 [label="bt_gluc <= 108.5\ngini = 0.353\nsamples = 858\nvalue = [662, 196]\nclass = Good", fillcolor="#eda674"] ;
1 [label="bt_sgot <= 160.0\ngini = 0.301\nsamples = 682\nvalue = [556, 126]\nclass = Good", fillcolor="#eb9e66"] ;
0 -> 1 [labeldistance=2.5, labelangle=45, headlabel="True"] ;
2 [label="gini = 0.295\nsamples = 678\nvalue = [556, 122]\nclass = Good", fillcolor="#eb9d64"] ;
1 -> 2 ;
3 [label="gini = 0.0\nsamples = 4\nvalue = [0, 4]\nclass = Bad", fillcolor="#399de5"] ;
1 -> 3 ;
4 [label="bt_gluc <= 244.5\ngini = 0.479\nsamples = 176\nvalue = [106, 70]\nclass = Good", fillcolor="#f6d4bc"] ;
0 -> 4 [labeldistance=2.5, labelangle=-45, headlabel="False"] ;
5 [label="gini = 0.469\nsamples = 170\nvalue = [106, 64]\nclass = Good", fillcolor="#f5cdb1"] ;
4 -> 5 ;
6 [label="gini = 0.0\nsamples = 6\nvalue = [0, 6]\nclass = Bad", fillcolor="#399de5"] ;
4 -> 6 ;
}